{"ent_embeddings.weight": [[-0.12738801538944244, -0.024927621707320213, 0.40087926387786865, 0.29587501287460327, -0.09752191603183746, -0.4011979401111603, 0.04971148073673248, -0.08377453684806824, 0.33496180176734924, -0.10432357341051102, 0.0380605012178421, 0.20444101095199585, -0.19586709141731262, -0.2229931801557541, -0.031049290671944618, -0.31110838055610657, 0.338874489068985, -0.22417430579662323, 0.23495884239673615, 0.37623271346092224], [-0.024472864344716072, 0.3774072825908661, 0.08270251005887985, 0.15523187816143036, 0.2028002142906189, -0.12434090673923492, 0.21796134114265442, 0.2211487889289856, -0.1623401939868927, 0.32157817482948303, 0.27013760805130005, 0.08753176033496857, 0.3111661970615387, -0.2497129887342453, -0.17373214662075043, -0.40318241715431213, -0.3308558464050293, 0.22808395326137543, 0.03217277303338051, -0.1199444830417633], [0.0069810813292860985, 0.03341875225305557, -0.18521954119205475, 0.14587852358818054, 0.039141397923231125, -0.35177093744277954, -0.35188955068588257, 0.0729537382721901, -0.3374701142311096, 0.3515346348285675, 0.038205064833164215, -0.30912885069847107, 0.0259515680372715, 0.304593026638031, 0.29001641273498535, -0.2844674289226532, -0.11004684865474701, -0.06128305941820145, 0.39550918340682983, -0.359535813331604], [0.3148702085018158, -0.10423518717288971, -0.003918674774467945, 0.3380301892757416, -0.056377023458480835, 0.23547221720218658, -0.4136466085910797, -0.22250576317310333, 0.3916778266429901, 0.08032234758138657, 0.2856530249118805, -0.2089061439037323, -0.02365703694522381, 0.035700034350156784, 0.23333603143692017, 0.009163690730929375, 0.007527216337621212, 0.2359899878501892, -0.2279449850320816, 0.3974827229976654], [0.08767841756343842, 0.3694334328174591, -0.2646489441394806, 0.29932716488838196, -0.1906285285949707, 0.25105366110801697, 0.2713513672351837, 0.07605215162038803, 0.004896225407719612, 0.36909961700439453, -0.3259669542312622, -0.1163540855050087, -0.3726421594619751, 0.0076027680188417435, -0.0530511774122715, 0.2949684262275696, -0.3058702349662781, -0.006014565005898476, 0.17342785000801086, 0.1603335440158844], [0.2729966938495636, 0.07366345077753067, 0.36367687582969666, -0.2935739755630493, -0.1279815435409546, 0.2121354043483734, -0.13609491288661957, -0.1954795867204666, -0.34374716877937317, -0.22576451301574707, -0.17910152673721313, 0.13194867968559265, -0.12493731081485748, -0.07450028508901596, -0.2626720368862152, 0.28260859847068787, -0.20201358199119568, 0.3701992928981781, -0.3250468671321869, 0.2173042744398117], [0.3165220022201538, -0.3983842730522156, 0.412266343832016, -0.2742745280265808, 0.20243431627750397, 0.4202989935874939, 0.3815244436264038, -0.2040339559316635, -0.31296977400779724, -0.04563383758068085, -0.38890907168388367, -0.23331047594547272, -0.13239485025405884, 0.02277352847158909, -0.41683802008628845, -0.28356674313545227, -0.42135658860206604, -0.17791830003261566, -0.2382763773202896, -0.38759106397628784], [-0.1001056358218193, -0.3646160066127777, -0.030157148838043213, -0.05081998556852341, 0.23330901563167572, -0.33261099457740784, -0.37142783403396606, -0.14656439423561096, 0.3422253429889679, 0.07715307921171188, -0.01274765096604824, -0.3377416133880615, -0.2982129156589508, 0.35687002539634705, -0.18826696276664734, -0.06766026467084885, -0.41369903087615967, -0.05462021753191948, 0.012768339365720749, 0.2803769111633301], [0.3115723431110382, 0.3880390226840973, -0.36469826102256775, 0.2559968829154968, -0.08629027009010315, 0.33758559823036194, 0.2141450047492981, 0.26499927043914795, 0.3887503445148468, -0.17332401871681213, 0.007121449336409569, 0.056549835950136185, -0.01598586142063141, -0.3636208176612854, 0.2789416015148163, 0.1369965374469757, -0.024659616872668266, 0.19626222550868988, 0.14910201728343964, 0.3679221272468567], [0.27328214049339294, -0.4009401798248291, -0.3989599645137787, 0.35376912355422974, 0.3580523133277893, 0.029585769400000572, 0.21830402314662933, 0.07460680603981018, -0.09066951274871826, 0.2873632311820984, 0.024217164143919945, -0.377244770526886, -0.007997702807188034, 0.17905908823013306, 0.2719729542732239, 0.227807879447937, -0.0892796590924263, -0.23806875944137573, 0.17009662091732025, -0.097183458507061], [-0.23189930617809296, -0.29725196957588196, 0.20312434434890747, -0.18468405306339264, 0.31336790323257446, -0.08630931377410889, -0.18020464479923248, 0.16249677538871765, 0.054131779819726944, -0.3082548677921295, 0.11874280124902725, -0.14740212261676788, -0.24728704988956451, -0.19978614151477814, -0.08973395824432373, -0.23352624475955963, 0.0453159436583519, 0.19998545944690704, -0.35411307215690613, -0.010714074596762657], [0.34989964962005615, 0.4201355278491974, 0.08215424418449402, 0.11702896654605865, 0.2441379427909851, 0.255066454410553, 0.3242170214653015, -0.07297708839178085, 0.14358212053775787, 0.27066853642463684, -0.3319244086742401, 0.017148930579423904, 0.15187133848667145, -0.11671072244644165, 0.21661996841430664, -0.052108656615018845, 0.12926989793777466, -0.19474996626377106, 0.33555492758750916, -0.1899157166481018], [-0.2625364363193512, -0.3252367675304413, 0.28918424248695374, -0.07588378340005875, 0.39603015780448914, -0.11212731152772903, 0.3436817228794098, -0.057193148881196976, 0.39049193263053894, 0.20604823529720306, -0.1727723926305771, -0.2742297053337097, -0.33299270272254944, 0.11496706306934357, 0.019139321520924568, 0.16960443556308746, 0.2808339297771454, 0.3376835882663727, -0.1351151466369629, 0.2550281286239624], [0.34154433012008667, 0.27587413787841797, 0.34678947925567627, 0.19657433032989502, 0.4232664704322815, -0.1734093725681305, 0.2082667499780655, -0.22088539600372314, -0.20679427683353424, -0.14474788308143616, -0.03626645728945732, -0.400949627161026, -0.3333026170730591, 0.14827358722686768, -0.2568194270133972, -0.23183594644069672, 0.18202462792396545, 0.11639059334993362, 0.05513080582022667, 0.38866427540779114], [0.3971821665763855, 0.012498833239078522, -0.1446959227323532, 0.24205642938613892, -0.3686736226081848, 0.26114940643310547, 0.3296961486339569, -0.387794554233551, 0.1700783669948578, -0.16549000144004822, -0.0006324148271232843, 0.3870473802089691, -0.12697722017765045, 0.18267887830734253, -0.343628853559494, -0.18745720386505127, -0.24241924285888672, -0.26896533370018005, 0.2836158275604248, 0.3171442747116089]], "rel_embeddings.weight": [[-0.048819880932569504, -0.31397515535354614, -0.10567782074213028, -0.2779165804386139, 0.4278815984725952, -0.30179375410079956, -0.3370220959186554, 0.3361979126930237, -0.08018067479133606, 0.43653857707977295, 0.0998072400689125, -0.049887169152498245, -0.30812111496925354, -0.15755678713321686, 0.08128438144922256, -0.2003212720155716, -0.30729806423187256, -0.361028790473938, 0.33160287141799927, -0.2716914713382721], [0.27167844772338867, -0.16994279623031616, 0.3238617181777954, -0.3068455457687378, 0.4050178527832031, -0.29732152819633484, 0.41669395565986633, -0.008841291069984436, -0.03194010257720947, -0.45818081498146057, 0.17647409439086914, 0.1020769327878952, 0.19870352745056152, 0.4689779281616211, -0.03367476165294647, -0.46331530809402466, 0.19440752267837524, 0.24978139996528625, -0.15407192707061768, -0.39488130807876587], [-0.054011788219213486, 0.21094395220279694, 0.17158621549606323, -0.1231871023774147, -0.19570600986480713, -0.060677122324705124, 0.27155256271362305, -0.4623924493789673, -0.3504306674003601, -0.32596495747566223, 0.39553597569465637, -0.19699594378471375, -0.25712865591049194, -0.3080197870731354, -0.09460124373435974, 0.2474050372838974, -0.07333487272262573, 0.4484007954597473, 0.3775086998939514, -0.13155271112918854], [0.39970600605010986, 0.4326806664466858, -0.13942675292491913, -0.2730349898338318, 0.1900477409362793, -0.10347956418991089, -0.21353314816951752, 0.2131689488887787, 0.1185922920703888, 0.15885022282600403, -0.17473115026950836, 0.15656743943691254, 0.10229668021202087, -0.02036852017045021, 0.09961093962192535, -0.38394227623939514, 0.38825857639312744, -0.08673540502786636, -0.1794266253709793, -0.20117338001728058], [0.00422342773526907, -0.21086107194423676, -0.45101937651634216, -0.07251022756099701, -0.18281202018260956, 0.32131427526474, -0.35797634720802307, 0.33502891659736633, -0.11130916327238083, -0.11322999000549316, -0.2168370932340622, -0.2447165697813034, 0.2482222318649292, 0.4535415768623352, -0.19588340818881989, 0.27675339579582214, 0.02029011957347393, -0.30757084488868713, -0.18633019924163818, 0.04019118845462799], [0.29647132754325867, -0.12000405043363571, 0.43611058592796326, 0.1484001874923706, -0.2700459361076355, -0.0839766412973404, 0.14839354157447815, 0.15354035794734955, 0.07014308869838715, -0.08643216639757156, 0.35005655884742737, 0.25008857250213623, 0.33552780747413635, -0.3299093544483185, -0.053338825702667236, -0.3163129985332489, -0.06839172542095184, -0.3938588500022888, -0.0906715840101242, 0.24351021647453308], [0.3625751733779907, -0.16917388141155243, -0.4148821234703064, 0.18946455419063568, 0.27600017189979553, -0.38080617785453796, -0.06542225182056427, -0.0544154979288578, 0.34777942299842834, -0.1311715990304947, 0.206934854388237, -0.33666375279426575, 0.3823423981666565, 0.26557081937789917, 0.34729334712028503, -0.03997958451509476, -0.30302533507347107, 0.308886855840683, -0.4343666434288025, -0.37883543968200684]]}